{"model":"FNN","hiddenLayers":[10],"iterations":50,"learningRate":0.01,"regularization":0.01,"activation":"tanh","activationParam":1,"dicts":{"inputs":{"37":2,"38":3,"39":0,"81":1},"outputs":{"0":39,"1":81,"2":37,"3":38}},"layers":[{"model":"Layer","inputSize":4,"outputSize":10,"regularization":0.01,"epsilon":0.01,"activation":"tanh","W":[[3.530615351960509,-1.5653695110117503,0.5221219382155113,23.797562720921384,1.2627228426340051,1.8827055081489528,2.510249360082143,-1.9134363918905755,1.0052089968797215,-17.53942583836999],[0.10345188171219713,-0.0725542581639579,0.06404952007435699,0.0759098587624431,0.48189796968858184,0.18230747628098629,0.440141332888235,0.22903388196989466,0.45361864532055335,0.16943112355761072],[0.5574893285537387,0.11731031196843511,0.46189214750337787,0.05695998015616083,0.34916185927664806,0.3732622380837234,0.2178309340167895,0.34160134663260294,0.4147715789875966,0.12963458178620485],[0.09695553051963761,0.3306171944212601,0.26519019928307613,0.029777151440293328,0.24166341152366158,0.007162374073877086,0.10188948055453524,0.013613811961096853,0.044968218517283706,0.1792063620453377]],"b":[[0.23318041635205072,-0.7313943173223202,-0.39973792019103366,-0.4552634218208188,0.5104195272372423,-0.5682675615131081,0.1984407649014903,-0.06503581079615416,0.1484697788858853,-0.18179861066050698]]},{"model":"Layer","inputSize":10,"outputSize":4,"regularization":0.01,"epsilon":0.01,"activation":"tanh","W":[[-0.9018094081054554,1.4828552971976545,1.7864217104994329,-1.733130025290996],[-2.320234141549217,0.41943762806023366,-0.16892654957854514,2.7149303385449643],[3.2235134013720788,0.6720696734458643,-0.7851998450840776,-2.462285472351394],[2.032864098595725,-1.020672076601838,0.10942036372738606,-0.45439861978973095],[0.8264374230662517,-3.848229906830087,3.2170286117787925,0.31750592363488916],[2.2979636259872365,-1.1277442017754833,0.0999528130967009,-0.5752985776492179],[2.7461469566829897,-3.492968130364014,1.3732042406232474,0.05833559367403973],[-2.5535938459706284,2.0670984179903846,-0.9410807617396786,2.071657555054065],[1.3859632016401298,0.7443429260181609,-1.262740220326152,-0.229410636340029],[-0.9814986943014719,3.093213175802808,-0.3445056862019429,-1.3733261868126543]],"b":[[1.905234903508346,-1.3789448371500481,0.41454162502088254,-0.9408316913791448]]}]}