{"model":"FNN","hiddenLayers":[10],"iterations":50,"learningRate":0.01,"regularization":0.01,"activation":"tanh","activationParam":1,"dicts":{"inputs":{"37":1,"38":3,"39":0,"40":4,"81":2},"outputs":{"0":39,"1":37,"2":81,"3":38,"4":40}},"layers":[{"model":"Layer","inputSize":3,"outputSize":10,"regularization":0.01,"epsilon":0.01,"activation":"tanh","W":[[0.4088345637893278,0.49217799226223485,-13.461002226452665,0.35344675347150034,0.530504588763249,0.20282449791579343,0.42781312259943854,0.9310242115960853,-17.343356324467226,0.21475573749885046],[0.08833289427534924,0.4250813168561591,0.2308163706106283,0.26634071020828726,0.2288469577856435,0.2272174830908524,0.28834672201374123,0.5040536881550699,-0.06809072539658698,0.4612472698848708],[0.37342509285034564,0.09904840510577831,0.595552093334204,0.45740820064962795,0.0971230528910328,0.2998596494645681,0.056796919256721985,-0.01357921383343638,4.805094702267045,0.01947453561852124]],"b":[[0,0,-0.17283708810576012,-4.824701153134379e-16,0,-2.2821905151598007e-8,0,0.009809035283519129,-0.19924518157631485,-2.91768445114089e-12]]},{"model":"Layer","inputSize":10,"outputSize":5,"regularization":0.01,"epsilon":0.01,"activation":"tanh","W":[[-1.0895430930221432,-1.4478602837788312,1.1493203126965092,2.0660683338701213,0.034396968102144876],[-1.0290210719107244,-1.3715546910308183,1.1153026845460698,2.1093226778442817,-0.11900063728168787],[1.6158950450592344,1.4304308408170059,-1.1788192390293932,-0.6139034362190017,-0.39797503298610776],[-1.1107200148951997,-1.3965449859777657,1.2133551605834776,2.3202348588671766,-0.03753583798680605],[-1.066327783173642,-1.502794297047589,1.1180132956712396,2.0515415652518665,-0.03864162076149748],[-1.0352476374924435,-1.338575763063825,1.016547146552766,2.24620124554888,0.06336009514880035],[-1.325912175411471,-1.5071594550560405,1.0894935418407803,2.078295784620938,-0.11832348302616938],[-1.2549695542222894,-1.4566560545057856,1.0309990207611945,2.208947434792872,0.028113340190363403],[-0.9870083617833063,0.9534904377326527,0.21602842223830437,1.6635502014145485,-0.8241590935939431],[-1.1007757430334386,-1.4193813595764386,1.0353501327525452,2.141872879684185,-0.13209808897927286]],"b":[[-1.3375346479036754,-1.5213275165719296,0.9855775892951404,2.0293655394013155,-0.15608096422047554]]}]}